#include <math.h>
#include <string.h>
float sigmoid(float x) {
    if (x < 0.0) {
        float z = exp(x);
        return z / (1.0f + z);
    }
    return 1.0f / (1.0f + exp(-x));
}
void score(float * input, float * output) {
    float var0;
    if (input[2] > 11477.117499290029f) {
        if (input[2] > 14792.678892086511f) {
            var0 = 1.183205125569781f;
        } else {
            var0 = 1.1361758246566858f;
        }
    } else {
        if (input[0] > 2490.279034554372f) {
            if (input[3] > 7481.794525195149f) {
                if (input[0] > 19169.880265860553f) {
                    var0 = 1.1798266136635325f;
                } else {
                    if (input[2] > 7501.193716767944f) {
                        if (input[3] > 8298.3514599235f) {
                            var0 = 1.028425332141236f;
                        } else {
                            var0 = 0.8484854158730755f;
                        }
                    } else {
                        var0 = 1.123540323577424f;
                    }
                }
            } else {
                if (input[2] > 5625.0349931431f) {
                    if (input[3] > 2644.5550263768523f) {
                        if (input[7] > 1547.0794858124375f) {
                            if (input[0] > 14167.876364131682f) {
                                var0 = 1.0328996920536757f;
                            } else {
                                if (input[6] > 2051.771213457196f) {
                                    var0 = 0.8149680866944022f;
                                } else {
                                    var0 = 0.9196468324776454f;
                                }
                            }
                        } else {
                            if (input[2] > 6873.865151640702f) {
                                if (input[8] > 899.2535539896464f) {
                                    if (input[3] > 4452.519572010092f) {
                                        var0 = 0.9170373195841885f;
                                    } else {
                                        var0 = 1.0746518983489863f;
                                    }
                                } else {
                                    var0 = 1.1385034169607602f;
                                }
                            } else {
                                if (input[3] > 4136.9723960634865f) {
                                    if (input[7] > 1410.1664911049427f) {
                                        var0 = 1.1091757539294214f;
                                    } else {
                                        var0 = 0.9490374034090945f;
                                    }
                                } else {
                                    if (input[0] > 6778.413682209025f) {
                                        var0 = 0.9639339941551714f;
                                    } else {
                                        var0 = 0.8069158754803067f;
                                    }
                                }
                            }
                        }
                    } else {
                        var0 = 0.8050370261970177f;
                    }
                } else {
                    if (input[3] > 4702.535558505114f) {
                        var0 = 0.9313477018981282f;
                    } else {
                        if (input[8] > 1143.7212775210944f) {
                            if (input[2] > 4719.574432737636f) {
                                var0 = 0.7993786312624613f;
                            } else {
                                if (input[0] > 6419.15451083907f) {
                                    var0 = 0.9825547325877676f;
                                } else {
                                    var0 = 0.8224163820674408f;
                                }
                            }
                        } else {
                            if (input[0] > 3313.726117470908f) {
                                if (input[6] > 1405.5040880764864f) {
                                    var0 = 0.8193494369138367f;
                                } else {
                                    var0 = 0.6999731581304941f;
                                }
                            } else {
                                if (input[3] > 2020.4424533121232f) {
                                    var0 = 0.7335885631741672f;
                                } else {
                                    if (input[2] > 2362.115533013011f) {
                                        var0 = 0.818071543099835f;
                                    } else {
                                        var0 = 1.0135892966420945f;
                                    }
                                }
                            }
                        }
                    }
                }
            }
        } else {
            if (input[2] > 2438.593995945401f) {
                if (input[2] > 4719.574432737636f) {
                    var0 = 0.9142786916682484f;
                } else {
                    var0 = 0.7720457065785875f;
                }
            } else {
                if (input[3] > 1655.988640473649f) {
                    var0 = 0.9556581104073509f;
                } else {
                    if (input[8] > 165.9571065972836f) {
                        var0 = 1.1039619471682944f;
                    } else {
                        var0 = 1.143229897189034f;
                    }
                }
            }
        }
    }
    float var1;
    if (input[2] > 11477.117499290029f) {
        if (input[2] > 14792.678892086511f) {
            var1 = 0.12616551478986793f;
        } else {
            var1 = 0.07871634764134755f;
        }
    } else {
        if (input[0] > 2600.455016734229f) {
            if (input[3] > 7481.794525195149f) {
                if (input[0] > 19169.880265860553f) {
                    var1 = 0.12267357480667598f;
                } else {
                    if (input[0] > 5287.167651748298f) {
                        if (input[2] > 7501.193716767944f) {
                            if (input[6] > 3213.401858980117f) {
                                var1 = 0.021063091657077083f;
                            } else {
                                if (input[7] > 1998.4879192474555f) {
                                    var1 = -0.22727992952011725f;
                                } else {
                                    var1 = -0.01846908970152584f;
                                }
                            }
                        } else {
                            var1 = 0.041230683706848015f;
                        }
                    } else {
                        var1 = 0.13380043391088853f;
                    }
                }
            } else {
                if (input[2] > 5134.026540039669f) {
                    if (input[3] > 2590.096876683148f) {
                        if (input[8] > 664.2366653706516f) {
                            if (input[0] > 14167.876364131682f) {
                                var1 = -0.011940303180284929f;
                            } else {
                                if (input[8] > 1623.745851682669f) {
                                    if (input[7] > 2373.245948979566f) {
                                        var1 = -0.09223352052063667f;
                                    } else {
                                        var1 = -0.22383951125672497f;
                                    }
                                } else {
                                    if (input[7] > 1806.2730738548828f) {
                                        var1 = 0.014905083516743474f;
                                    } else {
                                        if (input[2] > 5625.0349931431f) {
                                            if (input[7] > 1547.0794858124375f) {
                                                if (input[6] > 1888.5009150316134f) {
                                                    var1 = -0.23172722773724944f;
                                                } else {
                                                    var1 = -0.09185648948077868f;
                                                }
                                            } else {
                                                if (input[0] > 5996.004103004348f) {
                                                    if (input[0] > 7506.659170107758f) {
                                                        var1 = -0.08722895244308185f;
                                                    } else {
                                                        var1 = 0.023194318798034595f;
                                                    }
                                                } else {
                                                    if (input[8] > 1036.7549450845984f) {
                                                        var1 = -0.0860761073354882f;
                                                    } else {
                                                        var1 = -0.2507275503933818f;
                                                    }
                                                }
                                            }
                                        } else {
                                            var1 = -0.185748940501816f;
                                        }
                                    }
                                }
                            }
                        } else {
                            var1 = 0.057017161509107406f;
                        }
                    } else {
                        var1 = -0.21292032856229026f;
                    }
                } else {
                    if (input[3] > 4656.998713971216f) {
                        var1 = -0.09756228522666982f;
                    } else {
                        if (input[7] > 1357.9086924995083f) {
                            var1 = -0.13106924363287753f;
                        } else {
                            if (input[0] > 3124.6031970149857f) {
                                var1 = -0.26654240198377493f;
                            } else {
                                if (input[2] > 2362.115533013011f) {
                                    var1 = -0.24954434544698484f;
                                } else {
                                    var1 = -0.07766316173553794f;
                                }
                            }
                        }
                    }
                }
            }
        } else {
            if (input[2] > 2438.593995945401f) {
                if (input[0] > 1828.5584890461535f) {
                    var1 = -0.1420326707855753f;
                } else {
                    var1 = -0.2613685356130159f;
                }
            } else {
                if (input[6] > 620.9982890955615f) {
                    var1 = -0.1347147231062587f;
                } else {
                    if (input[8] > 165.9571065972836f) {
                        var1 = 0.04806832387031302f;
                    } else {
                        var1 = 0.08391970685373668f;
                    }
                }
            }
        }
    }
    float var2;
    if (input[2] > 11477.117499290029f) {
        if (input[2] > 14792.678892086511f) {
            var2 = 0.12221227551972567f;
        } else {
            var2 = 0.0740193809682798f;
        }
    } else {
        if (input[0] > 2600.455016734229f) {
            if (input[3] > 7481.794525195149f) {
                if (input[0] > 19169.880265860553f) {
                    var2 = 0.11856145047678564f;
                } else {
                    if (input[0] > 5287.167651748298f) {
                        if (input[6] > 3375.5360012312935f) {
                            var2 = 0.04542455237527055f;
                        } else {
                            if (input[7] > 1998.4879192474555f) {
                                if (input[3] > 8963.284497490235f) {
                                    var2 = -0.048318401255043976f;
                                } else {
                                    var2 = -0.2224605955408716f;
                                }
                            } else {
                                var2 = 0.03580303882290833f;
                            }
                        }
                    } else {
                        var2 = 0.12957594229205716f;
                    }
                }
            } else {
                if (input[2] > 5134.026540039669f) {
                    if (input[2] > 9938.516349507323f) {
                        var2 = -0.010175246378904036f;
                    } else {
                        if (input[3] > 2349.0174610029153f) {
                            if (input[7] > 1521.8171025266217f) {
                                if (input[0] > 12195.853565025422f) {
                                    var2 = -0.03246399718657093f;
                                } else {
                                    if (input[2] > 6961.786096800749f) {
                                        if (input[3] > 5184.242226938216f) {
                                            var2 = -0.25191127807561847f;
                                        } else {
                                            var2 = -0.13246059915636105f;
                                        }
                                    } else {
                                        if (input[2] > 6309.661189021755f) {
                                            var2 = -0.04541363987155173f;
                                        } else {
                                            var2 = -0.1524412009887378f;
                                        }
                                    }
                                }
                            } else {
                                if (input[2] > 6873.865151640702f) {
                                    var2 = 0.0050010329879263595f;
                                } else {
                                    if (input[3] > 4207.4270366102255f) {
                                        var2 = -0.04049919592763534f;
                                    } else {
                                        if (input[8] > 899.2535539896464f) {
                                            var2 = -0.11680477929235943f;
                                        } else {
                                            var2 = -0.22275930126892476f;
                                        }
                                    }
                                }
                            }
                        } else {
                            var2 = -0.2102174881871509f;
                        }
                    }
                } else {
                    if (input[3] > 5069.568329630604f) {
                        var2 = -0.061804609387103054f;
                    } else {
                        if (input[6] > 1405.5040880764864f) {
                            if (input[2] > 4614.395349404603f) {
                                var2 = -0.2523423071619376f;
                            } else {
                                var2 = -0.10235953596937426f;
                            }
                        } else {
                            if (input[0] > 3313.726117470908f) {
                                var2 = -0.22679884017157634f;
                            } else {
                                if (input[3] > 2020.4424533121232f) {
                                    var2 = -0.23704878096969814f;
                                } else {
                                    if (input[3] > 1615.0830250218821f) {
                                        var2 = -0.001605622422920114f;
                                    } else {
                                        var2 = -0.16556948299709873f;
                                    }
                                }
                            }
                        }
                    }
                }
            }
        } else {
            if (input[2] > 2438.593995945401f) {
                var2 = -0.15276260578502535f;
            } else {
                if (input[3] > 1749.7256374699894f) {
                    var2 = -0.1437460784767456f;
                } else {
                    if (input[8] > 165.9571065972836f) {
                        var2 = 0.04395755952710223f;
                    } else {
                        if (input[3] > 698.804159608503f) {
                            var2 = 0.10783086235151736f;
                        } else {
                            var2 = 0.05915892073965704f;
                        }
                    }
                }
            }
        }
    }
    float var3;
    if (input[2] > 11477.117499290029f) {
        if (input[2] > 14792.678892086511f) {
            var3 = 0.11874540455863365f;
        } else {
            var3 = 0.06956736328987372f;
        }
    } else {
        if (input[0] > 2239.18418929591f) {
            if (input[3] > 7481.794525195149f) {
                if (input[0] > 19169.880265860553f) {
                    var3 = 0.11489507025779183f;
                } else {
                    if (input[0] > 5287.167651748298f) {
                        if (input[2] > 7501.193716767944f) {
                            if (input[6] > 3213.401858980117f) {
                                var3 = 0.015948859527924308f;
                            } else {
                                if (input[7] > 1998.4879192474555f) {
                                    var3 = -0.16347488331880178f;
                                } else {
                                    var3 = -0.020359472384154635f;
                                }
                            }
                        } else {
                            var3 = 0.03895596991992153f;
                        }
                    } else {
                        var3 = 0.12738271038381968f;
                    }
                }
            } else {
                if (input[2] > 5675.340910272832f) {
                    if (input[8] > 749.0541590172378f) {
                        if (input[8] > 2176.344447878735f) {
                            var3 = 0.01613332228595138f;
                        } else {
                            if (input[8] > 1825.5631649375441f) {
                                var3 = -0.18125126115887838f;
                            } else {
                                if (input[3] > 2701.6189997720808f) {
                                    var3 = -0.07067149350122637f;
                                } else {
                                    var3 = -0.16719407756067606f;
                                }
                            }
                        }
                    } else {
                        if (input[2] > 8287.46451270537f) {
                            var3 = 0.0915996338559053f;
                        } else {
                            var3 = -0.08411011049915779f;
                        }
                    }
                } else {
                    if (input[0] > 2689.0091541043416f) {
                        if (input[3] > 4170.036446576788f) {
                            if (input[2] > 2983.617502221356f) {
                                if (input[0] > 10641.688166074773f) {
                                    var3 = 0.00556343427771706f;
                                } else {
                                    var3 = -0.09313286299431042f;
                                }
                            } else {
                                var3 = -0.18457812073045454f;
                            }
                        } else {
                            if (input[8] > 1309.0186293942377f) {
                                var3 = -0.06359391122519226f;
                            } else {
                                var3 = -0.1864803827666754f;
                            }
                        }
                    } else {
                        if (input[7] > 590.4657604922536f) {
                            var3 = -0.21807199014669762f;
                        } else {
                            if (input[8] > 369.3761070455318f) {
                                var3 = 0.10342781802305319f;
                            } else {
                                var3 = -0.03190966629669834f;
                            }
                        }
                    }
                }
            }
        } else {
            if (input[2] > 2438.593995945401f) {
                var3 = -0.14254810603832055f;
            } else {
                if (input[3] > 1655.988640473649f) {
                    var3 = -0.09599879928541351f;
                } else {
                    if (input[6] > 415.2630801753144f) {
                        if (input[0] > 1792.7958685364272f) {
                            var3 = 0.06469694099650662f;
                        } else {
                            var3 = -0.0736816191742377f;
                        }
                    } else {
                        if (input[2] > 749.0534771515073f) {
                            var3 = 0.07516357882934975f;
                        } else {
                            if (input[6] > 182.7710693955693f) {
                                if (input[8] > 140.97448722850473f) {
                                    var3 = 0.01647880811867545f;
                                } else {
                                    var3 = 0.10830917271196441f;
                                }
                            } else {
                                if (input[6] > 163.65429017355783f) {
                                    var3 = -0.11262546082246264f;
                                } else {
                                    var3 = 0.038535290408289825f;
                                }
                            }
                        }
                    }
                }
            }
        }
    }
    float var4;
    if (input[2] > 11477.117499290029f) {
        if (input[2] > 15976.25103986123f) {
            var4 = 0.11761096079479394f;
        } else {
            var4 = 0.07277971198111818f;
        }
    } else {
        if (input[0] > 2160.5144939341853f) {
            if (input[3] > 7481.794525195149f) {
                if (input[0] > 19169.880265860553f) {
                    var4 = 0.11158146118844788f;
                } else {
                    if (input[0] > 5287.167651748298f) {
                        if (input[2] > 7727.156324711862f) {
                            if (input[6] > 3213.401858980117f) {
                                var4 = 0.019315534289596675f;
                            } else {
                                if (input[7] > 1998.4879192474555f) {
                                    var4 = -0.15989312384855758f;
                                } else {
                                    var4 = -0.018140922423962754f;
                                }
                            }
                        } else {
                            var4 = 0.03211181986710603f;
                        }
                    } else {
                        var4 = 0.12568346643599637f;
                    }
                }
            } else {
                if (input[2] > 5625.0349931431f) {
                    if (input[7] > 625.1998201675746f) {
                        if (input[3] > 2288.1997336556055f) {
                            if (input[7] > 1547.0794858124375f) {
                                if (input[7] > 2373.245948979566f) {
                                    var4 = -0.006056610984930121f;
                                } else {
                                    if (input[2] > 6961.786096800749f) {
                                        if (input[7] > 1857.6036436130628f) {
                                            var4 = -0.18971764865501115f;
                                        } else {
                                            if (input[2] > 7727.156324711862f) {
                                                var4 = -0.05664982502709333f;
                                            } else {
                                                var4 = -0.16941411637215414f;
                                            }
                                        }
                                    } else {
                                        var4 = -0.059816227544652635f;
                                    }
                                }
                            } else {
                                if (input[2] > 6873.865151640702f) {
                                    var4 = 0.0003973874767864097f;
                                } else {
                                    if (input[8] > 977.6177646908787f) {
                                        if (input[6] > 1767.8165448149023f) {
                                            var4 = 0.03646392475101357f;
                                        } else {
                                            if (input[7] > 1287.405416022805f) {
                                                var4 = -0.1342675468261911f;
                                            } else {
                                                var4 = 0.004389034689092357f;
                                            }
                                        }
                                    } else {
                                        var4 = -0.15251625097284333f;
                                    }
                                }
                            }
                        } else {
                            var4 = -0.1790293951054156f;
                        }
                    } else {
                        var4 = 0.04016526554394846f;
                    }
                } else {
                    if (input[0] > 2689.0091541043416f) {
                        if (input[3] > 4953.417172951573f) {
                            var4 = -0.05339552102410127f;
                        } else {
                            if (input[8] > 1143.7212775210944f) {
                                if (input[0] > 7411.701648523317f) {
                                    if (input[2] > 4767.066733541224f) {
                                        var4 = -0.12863742446744314f;
                                    } else {
                                        var4 = -0.0036577315129071304f;
                                    }
                                } else {
                                    var4 = -0.14300939506276608f;
                                }
                            } else {
                                var4 = -0.16368738327011945f;
                            }
                        }
                    } else {
                        if (input[7] > 560.2660372220358f) {
                            var4 = -0.17690221563403113f;
                        } else {
                            if (input[8] > 369.3761070455318f) {
                                var4 = 0.10655479275823276f;
                            } else {
                                var4 = -0.03510279841370434f;
                            }
                        }
                    }
                }
            }
        } else {
            if (input[2] > 2438.593995945401f) {
                var4 = -0.1265321287146611f;
            } else {
                if (input[3] > 1494.6758802652087f) {
                    var4 = -0.07268174021055583f;
                } else {
                    var4 = 0.06120731042406118f;
                }
            }
        }
    }
    float var5;
    if (input[2] > 11477.117499290029f) {
        if (input[2] > 15976.25103986123f) {
            var5 = 0.11496257465022418f;
        } else {
            if (input[0] > 25494.90693529323f) {
                var5 = 0.12220451691476489f;
            } else {
                var5 = 0.053745812155014276f;
            }
        }
    } else {
        if (input[0] > 2160.5144939341853f) {
            if (input[3] > 8298.3514599235f) {
                if (input[0] > 16622.54904132979f) {
                    var5 = 0.09828834628401366f;
                } else {
                    if (input[0] > 5676.124002331143f) {
                        var5 = -0.009158624376652375f;
                    } else {
                        var5 = 0.1233078168635231f;
                    }
                }
            } else {
                if (input[3] > 4170.036446576788f) {
                    if (input[8] > 793.8358424907213f) {
                        if (input[0] > 14167.876364131682f) {
                            var5 = 0.038235782428929915f;
                        } else {
                            if (input[8] > 1623.745851682669f) {
                                if (input[0] > 6963.102266999108f) {
                                    var5 = -0.14835343393282371f;
                                } else {
                                    var5 = -0.03902426335578475f;
                                }
                            } else {
                                if (input[2] > 3592.3338787283574f) {
                                    if (input[7] > 1806.2730738548828f) {
                                        var5 = 0.024490716458558f;
                                    } else {
                                        if (input[7] > 1508.5064162804301f) {
                                            if (input[6] > 1619.871920295691f) {
                                                var5 = -0.12656482914321543f;
                                            } else {
                                                var5 = -0.012847463583063082f;
                                            }
                                        } else {
                                            if (input[0] > 6201.623686800044f) {
                                                var5 = -0.00303978825919824f;
                                            } else {
                                                var5 = -0.09755215817295426f;
                                            }
                                        }
                                    }
                                } else {
                                    var5 = -0.15027042248095057f;
                                }
                            }
                        }
                    } else {
                        if (input[2] > 4450.138024659024f) {
                            var5 = 0.1081292227787508f;
                        } else {
                            var5 = -0.056285472482259305f;
                        }
                    }
                } else {
                    if (input[0] > 2689.0091541043416f) {
                        if (input[2] > 6648.662061577014f) {
                            var5 = -0.04263480017539143f;
                        } else {
                            if (input[6] > 1868.7967562681454f) {
                                var5 = -0.028704639802525522f;
                            } else {
                                if (input[7] > 1032.0202760775842f) {
                                    if (input[6] > 1605.4990389047098f) {
                                        var5 = -0.18458924788803394f;
                                    } else {
                                        var5 = -0.09341422570167279f;
                                    }
                                } else {
                                    if (input[0] > 3313.726117470908f) {
                                        var5 = -0.16669111399852793f;
                                    } else {
                                        if (input[3] > 2020.4424533121232f) {
                                            var5 = -0.15917607960087488f;
                                        } else {
                                            var5 = -0.05638486664870847f;
                                        }
                                    }
                                }
                            }
                        }
                    } else {
                        if (input[7] > 560.2660372220358f) {
                            var5 = -0.12455883364808872f;
                        } else {
                            if (input[8] > 369.3761070455318f) {
                                var5 = 0.10091741216554298f;
                            } else {
                                var5 = -0.03102050857195937f;
                            }
                        }
                    }
                }
            }
        } else {
            if (input[6] > 555.399254244673f) {
                if (input[0] > 1764.0554768577529f) {
                    var5 = -0.07103206084976087f;
                } else {
                    var5 = -0.19296583798686492f;
                }
            } else {
                if (input[2] > 2438.593995945401f) {
                    var5 = -0.14931261980259436f;
                } else {
                    var5 = 0.05560900296175036f;
                }
            }
        }
    }
    float var6;
    if (input[2] > 11477.117499290029f) {
        if (input[0] > 25494.90693529323f) {
            var6 = 0.11705165732252032f;
        } else {
            if (input[7] > 3865.8573860166885f) {
                var6 = 0.11013319213226667f;
            } else {
                if (input[8] > 3488.155346111155f) {
                    var6 = -0.11771538148949251f;
                } else {
                    if (input[2] > 17001.188916713218f) {
                        var6 = 0.11681495376829582f;
                    } else {
                        if (input[8] > 1277.145925037116f) {
                            if (input[3] > 8832.453799258816f) {
                                var6 = 0.07029277001928742f;
                            } else {
                                var6 = -0.016044205248280208f;
                            }
                        } else {
                            var6 = 0.12094405807819353f;
                        }
                    }
                }
            }
        }
    } else {
        if (input[6] > 402.29742120498787f) {
            if (input[3] > 8298.3514599235f) {
                if (input[0] > 18706.323463333323f) {
                    var6 = 0.10612970309994829f;
                } else {
                    if (input[0] > 5676.124002331143f) {
                        var6 = -0.002079306105655323f;
                    } else {
                        var6 = 0.12814014535792492f;
                    }
                }
            } else {
                if (input[2] > 5675.340910272832f) {
                    if (input[7] > 662.0729436231185f) {
                        if (input[3] > 2288.1997336556055f) {
                            if (input[6] > 1462.9345208271736f) {
                                var6 = -0.06495235243737556f;
                            } else {
                                if (input[3] > 3997.092800872049f) {
                                    var6 = 0.03491105413332094f;
                                } else {
                                    var6 = -0.0656851563835713f;
                                }
                            }
                        } else {
                            var6 = -0.15102572579392182f;
                        }
                    } else {
                        var6 = 0.09831246799107948f;
                    }
                } else {
                    if (input[8] > 503.85997565323095f) {
                        if (input[0] > 10641.688166074773f) {
                            var6 = 0.03872183009759304f;
                        } else {
                            if (input[6] > 1320.4130949359321f) {
                                if (input[0] > 8961.814139790089f) {
                                    var6 = -0.1568156478779704f;
                                } else {
                                    if (input[0] > 4458.037503896366f) {
                                        if (input[7] > 1127.598621739293f) {
                                            var6 = -0.07055595077431652f;
                                        } else {
                                            var6 = 0.03990569370421545f;
                                        }
                                    } else {
                                        var6 = -0.1309161100251867f;
                                    }
                                }
                            } else {
                                if (input[2] > 3455.624944893846f) {
                                    var6 = -0.12427479823066406f;
                                } else {
                                    var6 = -0.17325568408251477f;
                                }
                            }
                        }
                    } else {
                        if (input[0] > 4036.820445111483f) {
                            var6 = -0.14945479455720967f;
                        } else {
                            if (input[8] > 279.42237694189845f) {
                                if (input[6] > 753.3780494235647f) {
                                    var6 = -0.1317139149376656f;
                                } else {
                                    if (input[7] > 336.0922675344909f) {
                                        if (input[3] > 2020.4424533121232f) {
                                            var6 = -0.059461839322853f;
                                        } else {
                                            if (input[3] > 1231.440279631917f) {
                                                var6 = 0.10661912651369099f;
                                            } else {
                                                var6 = -0.01379291672724673f;
                                            }
                                        }
                                    } else {
                                        var6 = -0.09286647896356318f;
                                    }
                                }
                            } else {
                                var6 = -0.13439437888086372f;
                            }
                        }
                    }
                }
            }
        } else {
            if (input[0] > 2689.0091541043416f) {
                var6 = -0.13989952918269385f;
            } else {
                var6 = 0.049117629083688406f;
            }
        }
    }
    float var7;
    if (input[2] > 11477.117499290029f) {
        if (input[0] > 25494.90693529323f) {
            var7 = 0.11516937513568887f;
        } else {
            if (input[2] > 17001.188916713218f) {
                var7 = 0.10147576477956735f;
            } else {
                var7 = 0.04855241851136544f;
            }
        }
    } else {
        if (input[0] > 2160.5144939341853f) {
            if (input[3] > 7481.794525195149f) {
                if (input[0] > 19169.880265860553f) {
                    var7 = 0.1035327835574276f;
                } else {
                    if (input[0] > 5287.167651748298f) {
                        if (input[2] > 7501.193716767944f) {
                            if (input[3] > 12531.396170246973f) {
                                var7 = 0.03292019942040629f;
                            } else {
                                if (input[7] > 1998.4879192474555f) {
                                    var7 = -0.11365723612407513f;
                                } else {
                                    var7 = 0.006138987155715019f;
                                }
                            }
                        } else {
                            var7 = 0.03477581715188579f;
                        }
                    } else {
                        var7 = 0.11954696893766435f;
                    }
                }
            } else {
                if (input[2] > 5625.0349931431f) {
                    var7 = -0.047240704087861254f;
                } else {
                    if (input[0] > 2689.0091541043416f) {
                        if (input[3] > 4953.417172951573f) {
                            var7 = -0.032596671973726433f;
                        } else {
                            if (input[8] > 1143.7212775210944f) {
                                if (input[3] > 3284.285452093827f) {
                                    var7 = -0.09109674585740601f;
                                } else {
                                    var7 = -0.00026384350093059614f;
                                }
                            } else {
                                var7 = -0.1250693233351485f;
                            }
                        }
                    } else {
                        if (input[7] > 590.4657604922536f) {
                            var7 = -0.13604897350104772f;
                        } else {
                            if (input[8] > 369.3761070455318f) {
                                var7 = 0.09543610003136739f;
                            } else {
                                if (input[8] > 209.86513672971174f) {
                                    var7 = -0.07956397122420612f;
                                } else {
                                    var7 = 0.03851790804186089f;
                                }
                            }
                        }
                    }
                }
            }
        } else {
            if (input[3] > 1494.6758802652087f) {
                if (input[0] > 1792.7958685364272f) {
                    if (input[8] > 503.85997565323095f) {
                        var7 = -0.08076963822926474f;
                    } else {
                        var7 = 0.039663226601031054f;
                    }
                } else {
                    var7 = -0.15258524387679373f;
                }
            } else {
                if (input[6] > 487.6520134859417f) {
                    var7 = -0.0781384965978102f;
                } else {
                    if (input[2] > 749.0534771515073f) {
                        if (input[8] > 165.9571065972836f) {
                            if (input[0] > 1358.5242560808458f) {
                                var7 = 0.06547505151845397f;
                            } else {
                                var7 = -0.00070681329753921f;
                            }
                        } else {
                            if (input[0] > 653.202118421798f) {
                                var7 = 0.08705820916751204f;
                            } else {
                                var7 = -0.035510028724444934f;
                            }
                        }
                    } else {
                        if (input[6] > 182.7710693955693f) {
                            if (input[0] > 793.4089418103669f) {
                                if (input[8] > 160.32661807299723f) {
                                    var7 = -0.0074858518360917635f;
                                } else {
                                    var7 = 0.12116038064340173f;
                                }
                            } else {
                                var7 = -0.027567361812793907f;
                            }
                        } else {
                            if (input[6] > 163.65429017355783f) {
                                var7 = -0.12155060858532125f;
                            } else {
                                var7 = 0.021806599857763842f;
                            }
                        }
                    }
                }
            }
        }
    }
    float var8;
    if (input[2] > 11477.117499290029f) {
        if (input[0] > 25494.90693529323f) {
            var8 = 0.11352020316883067f;
        } else {
            if (input[7] > 3865.8573860166885f) {
                var8 = 0.10583673173430858f;
            } else {
                if (input[8] > 3488.155346111155f) {
                    var8 = -0.11176281726291125f;
                } else {
                    if (input[2] > 17001.188916713218f) {
                        var8 = 0.11351739675642197f;
                    } else {
                        if (input[8] > 1277.145925037116f) {
                            if (input[3] > 8832.453799258816f) {
                                var8 = 0.06373876766855066f;
                            } else {
                                var8 = -0.019669895418395637f;
                            }
                        } else {
                            var8 = 0.11768790242888759f;
                        }
                    }
                }
            }
        }
    } else {
        if (input[0] > 2160.5144939341853f) {
            if (input[3] > 7481.794525195149f) {
                if (input[0] > 19169.880265860553f) {
                    var8 = 0.10099904650233585f;
                } else {
                    if (input[0] > 5287.167651748298f) {
                        if (input[6] > 3375.5360012312935f) {
                            var8 = 0.03924986460622404f;
                        } else {
                            if (input[7] > 1998.4879192474555f) {
                                if (input[3] > 8963.284497490235f) {
                                    var8 = -0.018608423521619576f;
                                } else {
                                    var8 = -0.14864495573831596f;
                                }
                            } else {
                                var8 = 0.03008272014876719f;
                            }
                        }
                    } else {
                        var8 = 0.11741130758685646f;
                    }
                }
            } else {
                if (input[2] > 5134.026540039669f) {
                    if (input[8] > 2210.3402145976183f) {
                        var8 = 0.04746065424482239f;
                    } else {
                        if (input[6] > 2051.771213457196f) {
                            var8 = -0.08424513284903797f;
                        } else {
                            if (input[2] > 8394.138766515449f) {
                                var8 = 0.03683781297658513f;
                            } else {
                                if (input[3] > 2731.468257018267f) {
                                    if (input[2] > 5294.968991279494f) {
                                        if (input[2] > 5835.400412861741f) {
                                            var8 = -0.026877053630164634f;
                                        } else {
                                            var8 = -0.08777601113121605f;
                                        }
                                    } else {
                                        var8 = 0.04787383442033933f;
                                    }
                                } else {
                                    var8 = -0.11797837945920331f;
                                }
                            }
                        }
                    }
                } else {
                    if (input[0] > 2689.0091541043416f) {
                        if (input[3] > 4353.290291567473f) {
                            var8 = -0.04191136788057962f;
                        } else {
                            var8 = -0.11361824336055289f;
                        }
                    } else {
                        if (input[7] > 560.2660372220358f) {
                            var8 = -0.12012290530757125f;
                        } else {
                            if (input[3] > 914.8482516796447f) {
                                var8 = 0.0394025496293253f;
                            } else {
                                var8 = -0.10270564672439192f;
                            }
                        }
                    }
                }
            }
        } else {
            if (input[3] > 1494.6758802652087f) {
                if (input[0] > 1792.7958685364272f) {
                    var8 = -0.018271760515614553f;
                } else {
                    var8 = -0.13641129513887676f;
                }
            } else {
                if (input[6] > 487.6520134859417f) {
                    var8 = -0.06861677573564624f;
                } else {
                    if (input[2] > 749.0534771515073f) {
                        var8 = 0.05626167243625996f;
                    } else {
                        if (input[0] > 775.6224177013545f) {
                            var8 = 0.03951756324825942f;
                        } else {
                            var8 = -0.05190521765592927f;
                        }
                    }
                }
            }
        }
    }
    float var9;
    if (input[2] > 11477.117499290029f) {
        if (input[0] > 25494.90693529323f) {
            var9 = 0.11207012568276722f;
        } else {
            if (input[7] > 3865.8573860166885f) {
                var9 = 0.10356594320855027f;
            } else {
                if (input[8] > 3488.155346111155f) {
                    var9 = -0.09288624390667123f;
                } else {
                    if (input[2] > 17001.188916713218f) {
                        var9 = 0.11206682756121618f;
                    } else {
                        var9 = 0.034547691872929984f;
                    }
                }
            }
        }
    } else {
        if (input[0] > 2160.5144939341853f) {
            if (input[3] > 4170.036446576788f) {
                if (input[0] > 14494.876049496334f) {
                    if (input[8] > 1234.2358016833407f) {
                        var9 = 0.07029057205895643f;
                    } else {
                        var9 = -0.037560471075200365f;
                    }
                } else {
                    if (input[8] > 793.8358424907213f) {
                        if (input[0] > 12454.04649952159f) {
                            var9 = -0.14867337353149512f;
                        } else {
                            if (input[3] > 8832.453799258816f) {
                                var9 = 0.028827514788349353f;
                            } else {
                                if (input[8] > 1623.745851682669f) {
                                    if (input[7] > 2373.245948979566f) {
                                        var9 = -0.009490186612977966f;
                                    } else {
                                        var9 = -0.11834623770191709f;
                                    }
                                } else {
                                    if (input[0] > 10358.41001854357f) {
                                        var9 = 0.07373855424612967f;
                                    } else {
                                        var9 = -0.042747113938491704f;
                                    }
                                }
                            }
                        }
                    } else {
                        if (input[3] > 4865.140889006311f) {
                            var9 = 0.1162603106138812f;
                        } else {
                            var9 = -0.026375342860465768f;
                        }
                    }
                }
            } else {
                if (input[6] > 1767.8165448149023f) {
                    if (input[3] > 3783.170985174931f) {
                        var9 = -0.07609360153542302f;
                    } else {
                        var9 = 0.0290099669413143f;
                    }
                } else {
                    if (input[0] > 2939.5261653321136f) {
                        if (input[2] > 6961.786096800749f) {
                            var9 = -0.03127276870001057f;
                        } else {
                            if (input[7] > 1013.3617410915969f) {
                                if (input[6] > 1605.4990389047098f) {
                                    var9 = -0.15322265580705138f;
                                } else {
                                    if (input[2] > 3398.6611903284643f) {
                                        if (input[3] > 2590.096876683148f) {
                                            var9 = -0.01370207235845683f;
                                        } else {
                                            var9 = -0.13066512801484428f;
                                        }
                                    } else {
                                        var9 = -0.13132425753891336f;
                                    }
                                }
                            } else {
                                var9 = -0.12247983658865225f;
                            }
                        }
                    } else {
                        if (input[6] > 804.7699617164634f) {
                            var9 = -0.1239445904225126f;
                        } else {
                            if (input[3] > 914.8482516796447f) {
                                if (input[3] > 1978.6763147741312f) {
                                    var9 = -0.06633760057566357f;
                                } else {
                                    var9 = 0.04730788482145188f;
                                }
                            } else {
                                var9 = -0.12108534977884072f;
                            }
                        }
                    }
                }
            }
        } else {
            if (input[6] > 449.7499243570291f) {
                if (input[0] > 1828.5584890461535f) {
                    if (input[8] > 503.85997565323095f) {
                        var9 = -0.07057121812416255f;
                    } else {
                        var9 = 0.049817789193401324f;
                    }
                } else {
                    var9 = -0.11864764594511241f;
                }
            } else {
                var9 = 0.0426874191302286f;
            }
        }
    }
    float var10;
    if (input[2] > 11477.117499290029f) {
        if (input[0] > 25494.90693529323f) {
            var10 = 0.11079115908311853f;
        } else {
            if (input[7] > 3865.8573860166885f) {
                var10 = 0.10140378535247435f;
            } else {
                if (input[8] > 3526.322012914054f) {
                    var10 = -0.10013268201174674f;
                } else {
                    if (input[2] > 14792.678892086511f) {
                        var10 = 0.08970058295327195f;
                    } else {
                        if (input[7] > 2373.245948979566f) {
                            var10 = -0.022754497466351692f;
                        } else {
                            var10 = 0.0617081371954331f;
                        }
                    }
                }
            }
        }
    } else {
        if (input[0] > 2160.5144939341853f) {
            if (input[8] > 2176.344447878735f) {
                var10 = 0.045634574397363126f;
            } else {
                if (input[3] > 4170.036446576788f) {
                    if (input[8] > 793.8358424907213f) {
                        if (input[0] > 14494.876049496334f) {
                            var10 = 0.054803678973355946f;
                        } else {
                            if (input[6] > 2299.373467191579f) {
                                var10 = -0.11070485727315081f;
                            } else {
                                if (input[2] > 2883.0281908509382f) {
                                    var10 = -0.027570226664582337f;
                                } else {
                                    var10 = -0.1394655780731006f;
                                }
                            }
                        }
                    } else {
                        if (input[2] > 4450.138024659024f) {
                            var10 = 0.09169255716095258f;
                        } else {
                            var10 = -0.01646397843557231f;
                        }
                    }
                } else {
                    if (input[0] > 2689.0091541043416f) {
                        if (input[2] > 6648.662061577014f) {
                            if (input[7] > 1302.8123941990214f) {
                                if (input[3] > 3510.0330126830736f) {
                                    var10 = 0.00738277723337802f;
                                } else {
                                    var10 = -0.14063134863918678f;
                                }
                            } else {
                                var10 = 0.01852780132217567f;
                            }
                        } else {
                            if (input[7] > 1032.0202760775842f) {
                                var10 = -0.06560469480569796f;
                            } else {
                                if (input[0] > 3313.726117470908f) {
                                    var10 = -0.12122491063739371f;
                                } else {
                                    if (input[3] > 2020.4424533121232f) {
                                        var10 = -0.11226026402980045f;
                                    } else {
                                        var10 = -0.01370919559695935f;
                                    }
                                }
                            }
                        }
                    } else {
                        var10 = -0.017132029802333453f;
                    }
                }
            }
        } else {
            if (input[3] > 1494.6758802652087f) {
                if (input[0] > 1764.0554768577529f) {
                    var10 = -0.018740894721026052f;
                } else {
                    var10 = -0.12557579974808955f;
                }
            } else {
                if (input[6] > 487.6520134859417f) {
                    var10 = -0.05700619530179607f;
                } else {
                    if (input[2] > 749.0534771515073f) {
                        if (input[8] > 165.9571065972836f) {
                            if (input[0] > 1144.5493096469006f) {
                                var10 = 0.04742358489000828f;
                            } else {
                                if (input[7] > 198.57934247770507f) {
                                    var10 = -0.0877953583955608f;
                                } else {
                                    var10 = 0.057242591801806755f;
                                }
                            }
                        } else {
                            var10 = 0.07132604446624537f;
                        }
                    } else {
                        if (input[2] > 711.3496854172155f) {
                            var10 = -0.08559323307819999f;
                        } else {
                            if (input[0] > 793.4089418103669f) {
                                var10 = 0.07462179202676554f;
                            } else {
                                var10 = -0.0677497406127242f;
                            }
                        }
                    }
                }
            }
        }
    }
    float var11;
    if (input[2] > 11477.117499290029f) {
        if (input[0] > 25494.90693529323f) {
            var11 = 0.10965999467129668f;
        } else {
            if (input[2] > 17001.188916713218f) {
                var11 = 0.09279835690796737f;
            } else {
                if (input[0] > 5815.221893995725f) {
                    if (input[6] > 4553.878170362667f) {
                        var11 = 0.08682742685424243f;
                    } else {
                        if (input[6] > 4110.049046344478f) {
                            var11 = -0.10310465896120691f;
                        } else {
                            var11 = 0.02255990185734815f;
                        }
                    }
                } else {
                    var11 = 0.11553036825135324f;
                }
            }
        }
    } else {
        if (input[0] > 2160.5144939341853f) {
            if (input[3] > 4170.036446576788f) {
                if (input[0] > 19169.880265860553f) {
                    var11 = 0.08787057561471132f;
                } else {
                    if (input[7] > 2888.0613099006982f) {
                        if (input[8] > 3376.0516601058157f) {
                            var11 = -0.05115323126731636f;
                        } else {
                            var11 = 0.08157044368422953f;
                        }
                    } else {
                        if (input[7] > 1857.6036436130628f) {
                            if (input[3] > 10248.644233193289f) {
                                var11 = 0.026974669990664266f;
                            } else {
                                if (input[6] > 2299.373467191579f) {
                                    var11 = -0.11455814473025644f;
                                } else {
                                    var11 = -0.03418469594143819f;
                                }
                            }
                        } else {
                            if (input[3] > 7481.794525195149f) {
                                if (input[2] > 8643.089532112164f) {
                                    var11 = -0.04098249852169723f;
                                } else {
                                    var11 = 0.08824268674662522f;
                                }
                            } else {
                                if (input[2] > 3238.945438854796f) {
                                    if (input[8] > 719.426714053801f) {
                                        if (input[3] > 5883.436289156128f) {
                                            if (input[8] > 1416.4635655521467f) {
                                                var11 = -0.013779400509549731f;
                                            } else {
                                                var11 = -0.11965729479264547f;
                                            }
                                        } else {
                                            var11 = -0.01466378412457583f;
                                        }
                                    } else {
                                        var11 = 0.10045902509548504f;
                                    }
                                } else {
                                    var11 = -0.1035250910400323f;
                                }
                            }
                        }
                    }
                }
            } else {
                if (input[6] > 1767.8165448149023f) {
                    if (input[3] > 3783.170985174931f) {
                        var11 = -0.06605847124763237f;
                    } else {
                        var11 = 0.03188255436541681f;
                    }
                } else {
                    if (input[0] > 2939.5261653321136f) {
                        if (input[2] > 5134.026540039669f) {
                            if (input[7] > 1302.8123941990214f) {
                                var11 = -0.10731989818440167f;
                            } else {
                                if (input[7] > 1060.4506896879943f) {
                                    var11 = 0.031568664370377225f;
                                } else {
                                    var11 = -0.08069689765839977f;
                                }
                            }
                        } else {
                            var11 = -0.10207357633175403f;
                        }
                    } else {
                        if (input[6] > 804.7699617164634f) {
                            var11 = -0.11243720644107301f;
                        } else {
                            if (input[3] > 914.8482516796447f) {
                                var11 = 0.02236051525387385f;
                            } else {
                                var11 = -0.1029025076889823f;
                            }
                        }
                    }
                }
            }
        } else {
            if (input[3] > 1494.6758802652087f) {
                if (input[0] > 1764.0554768577529f) {
                    var11 = -0.016822334982716965f;
                } else {
                    var11 = -0.11430882948306871f;
                }
            } else {
                var11 = 0.03579285282421712f;
            }
        }
    }
    float var12;
    if (input[2] > 13627.216849130005f) {
        var12 = 0.09377687345992339f;
    } else {
        if (input[6] > 402.29742120498787f) {
            if (input[8] > 2176.344447878735f) {
                var12 = 0.043250981738838255f;
            } else {
                if (input[3] > 4170.036446576788f) {
                    if (input[7] > 1508.5064162804301f) {
                        if (input[6] > 1462.9345208271736f) {
                            if (input[3] > 10248.644233193289f) {
                                var12 = 0.03944721926862782f;
                            } else {
                                if (input[7] > 1587.1920249904665f) {
                                    if (input[3] > 5544.578161681064f) {
                                        var12 = -0.07733149779921661f;
                                    } else {
                                        var12 = -0.009918993952731537f;
                                    }
                                } else {
                                    var12 = -0.13191546133870963f;
                                }
                            }
                        } else {
                            var12 = 0.05323475921589382f;
                        }
                    } else {
                        if (input[3] > 5697.62659186956f) {
                            if (input[0] > 8961.814139790089f) {
                                var12 = -0.01555486043024486f;
                            } else {
                                var12 = 0.08300554784055958f;
                            }
                        } else {
                            if (input[2] > 2983.617502221356f) {
                                if (input[7] > 1388.707264540607f) {
                                    var12 = 0.07434952911783796f;
                                } else {
                                    var12 = -0.027081561936988997f;
                                }
                            } else {
                                var12 = -0.16460346395660042f;
                            }
                        }
                    }
                } else {
                    if (input[2] > 6648.662061577014f) {
                        if (input[0] > 8809.09384703365f) {
                            var12 = -0.06128966087888308f;
                        } else {
                            var12 = 0.028642016089869073f;
                        }
                    } else {
                        if (input[8] > 503.85997565323095f) {
                            if (input[7] > 1013.3617410915969f) {
                                var12 = -0.05347046483048962f;
                            } else {
                                var12 = -0.11943926773700242f;
                            }
                        } else {
                            if (input[0] > 3792.340499499412f) {
                                var12 = -0.10781383794082632f;
                            } else {
                                if (input[7] > 311.15429459408756f) {
                                    if (input[3] > 2349.0174610029153f) {
                                        var12 = -0.12016623037037331f;
                                    } else {
                                        if (input[3] > 1231.440279631917f) {
                                            if (input[8] > 430.7541287956753f) {
                                                var12 = 0.157327246243303f;
                                            } else {
                                                var12 = 0.037366911159873874f;
                                            }
                                        } else {
                                            var12 = -0.042094286537289013f;
                                        }
                                    }
                                } else {
                                    var12 = -0.12493809672209258f;
                                }
                            }
                        }
                    }
                }
            }
        } else {
            if (input[3] > 1494.6758802652087f) {
                var12 = -0.10025269703403737f;
            } else {
                if (input[8] > 165.9571065972836f) {
                    if (input[6] > 387.29777095184494f) {
                        var12 = 0.12740737586399822f;
                    } else {
                        if (input[0] > 2160.5144939341853f) {
                            var12 = -0.0685011787501927f;
                        } else {
                            var12 = 0.015153536818656594f;
                        }
                    }
                } else {
                    if (input[3] > 698.804159608503f) {
                        var12 = 0.08567778812079341f;
                    } else {
                        if (input[8] > 100.47545466187779f) {
                            if (input[7] > 182.56934626237464f) {
                                var12 = 0.10221801285165483f;
                            } else {
                                if (input[0] > 775.6224177013545f) {
                                    var12 = 0.0012455012916236582f;
                                } else {
                                    var12 = -0.09122192980268953f;
                                }
                            }
                        } else {
                            var12 = 0.11778590997187384f;
                        }
                    }
                }
            }
        }
    }
    float var13;
    if (input[2] > 14792.678892086511f) {
        var13 = 0.09719295286103975f;
    } else {
        if (input[6] > 402.29742120498787f) {
            if (input[3] > 8832.453799258816f) {
                if (input[3] > 16133.7736635943f) {
                    var13 = 0.11673642250765073f;
                } else {
                    var13 = 0.02475696563451644f;
                }
            } else {
                if (input[8] > 2645.1655918944725f) {
                    var13 = 0.09184916828491949f;
                } else {
                    if (input[2] > 5625.0349931431f) {
                        if (input[6] > 2299.373467191579f) {
                            if (input[3] > 6070.0482599954275f) {
                                var13 = -0.10783817055159589f;
                            } else {
                                if (input[6] > 2887.5138148338942f) {
                                    var13 = 0.047125468426586076f;
                                } else {
                                    var13 = -0.07362786596129399f;
                                }
                            }
                        } else {
                            if (input[2] > 11477.117499290029f) {
                                var13 = 0.09554821353191889f;
                            } else {
                                if (input[3] > 2701.6189997720808f) {
                                    if (input[8] > 664.2366653706516f) {
                                        var13 = -0.015679402863071176f;
                                    } else {
                                        var13 = 0.12531690845908203f;
                                    }
                                } else {
                                    var13 = -0.07765477692487845f;
                                }
                            }
                        }
                    } else {
                        if (input[3] > 4953.417172951573f) {
                            if (input[7] > 833.902221047667f) {
                                if (input[3] > 5883.436289156128f) {
                                    if (input[3] > 6930.736740164361f) {
                                        var13 = 0.008498293059639913f;
                                    } else {
                                        var13 = -0.12045530162545617f;
                                    }
                                } else {
                                    if (input[6] > 1559.1506111268102f) {
                                        var13 = 0.08463268454782952f;
                                    } else {
                                        var13 = -0.06150976764487322f;
                                    }
                                }
                            } else {
                                var13 = 0.09519218873176599f;
                            }
                        } else {
                            if (input[8] > 503.85997565323095f) {
                                if (input[7] > 961.740944121378f) {
                                    var13 = -0.052970883733045385f;
                                } else {
                                    var13 = -0.1098719106866704f;
                                }
                            } else {
                                if (input[0] > 3792.340499499412f) {
                                    var13 = -0.10578348845309374f;
                                } else {
                                    if (input[7] > 311.15429459408756f) {
                                        if (input[3] > 2349.0174610029153f) {
                                            var13 = -0.11233542411119198f;
                                        } else {
                                            if (input[3] > 1231.440279631917f) {
                                                if (input[8] > 430.7541287956753f) {
                                                    var13 = 0.1445534598667948f;
                                                } else {
                                                    var13 = 0.034120725001647444f;
                                                }
                                            } else {
                                                var13 = -0.037220533095638934f;
                                            }
                                        }
                                    } else {
                                        var13 = -0.11031325561845057f;
                                    }
                                }
                            }
                        }
                    }
                }
            }
        } else {
            if (input[3] > 1494.6758802652087f) {
                var13 = -0.09110499902907528f;
            } else {
                if (input[8] > 165.9571065972836f) {
                    if (input[3] > 1026.6018655502214f) {
                        var13 = 0.05669947144374459f;
                    } else {
                        var13 = -0.01073134605896389f;
                    }
                } else {
                    if (input[3] > 698.804159608503f) {
                        var13 = 0.08231522023638581f;
                    } else {
                        if (input[8] > 100.47545466187779f) {
                            if (input[7] > 182.56934626237464f) {
                                var13 = 0.09935477938179776f;
                            } else {
                                var13 = -0.0170822894400124f;
                            }
                        } else {
                            var13 = 0.11582370803100235f;
                        }
                    }
                }
            }
        }
    }
    float var14;
    if (input[2] > 14792.678892086511f) {
        var14 = 0.09542669769172739f;
    } else {
        if (input[0] > 2160.5144939341853f) {
            if (input[8] > 2176.344447878735f) {
                if (input[3] > 16133.7736635943f) {
                    var14 = 0.11426555227405616f;
                } else {
                    if (input[7] > 2569.5706769399208f) {
                        if (input[7] > 2710.8047354844107f) {
                            var14 = 0.024881854010257075f;
                        } else {
                            var14 = -0.08500216610779857f;
                        }
                    } else {
                        var14 = 0.08783254392218513f;
                    }
                }
            } else {
                if (input[3] > 4170.036446576788f) {
                    if (input[0] > 19590.30482758357f) {
                        var14 = 0.07980111790957176f;
                    } else {
                        if (input[6] > 2299.373467191579f) {
                            if (input[8] > 1922.3661261901507f) {
                                var14 = -0.11511106664952682f;
                            } else {
                                var14 = -0.03310999469862014f;
                            }
                        } else {
                            if (input[7] > 753.2471457682108f) {
                                if (input[7] > 2028.629821442956f) {
                                    var14 = 0.06991573904608357f;
                                } else {
                                    var14 = -0.02108304651578266f;
                                }
                            } else {
                                var14 = 0.0807037578828019f;
                            }
                        }
                    }
                } else {
                    if (input[2] > 6648.662061577014f) {
                        if (input[0] > 8809.09384703365f) {
                            var14 = -0.06012043062104038f;
                        } else {
                            var14 = 0.019859623123729346f;
                        }
                    } else {
                        if (input[0] > 2689.0091541043416f) {
                            if (input[8] > 899.2535539896464f) {
                                var14 = -0.04546848546657923f;
                            } else {
                                if (input[6] > 753.3780494235647f) {
                                    if (input[7] > 1048.9853725857429f) {
                                        var14 = -0.030349719312174697f;
                                    } else {
                                        var14 = -0.11917055139361528f;
                                    }
                                } else {
                                    if (input[7] > 409.22656105513323f) {
                                        if (input[3] > 2020.4424533121232f) {
                                            var14 = -0.09516393136547546f;
                                        } else {
                                            if (input[0] > 3792.340499499412f) {
                                                var14 = -0.03940176934637332f;
                                            } else {
                                                var14 = 0.09208943923389354f;
                                            }
                                        }
                                    } else {
                                        var14 = -0.10658787287500429f;
                                    }
                                }
                            }
                        } else {
                            if (input[7] > 560.2660372220358f) {
                                var14 = -0.08452368296012557f;
                            } else {
                                if (input[8] > 369.3761070455318f) {
                                    var14 = 0.08522553721932176f;
                                } else {
                                    var14 = -0.01994644679993556f;
                                }
                            }
                        }
                    }
                }
            }
        } else {
            if (input[6] > 449.7499243570291f) {
                if (input[0] > 1828.5584890461535f) {
                    if (input[6] > 566.2739484697909f) {
                        var14 = -0.032152823178577004f;
                    } else {
                        var14 = 0.07194229026197868f;
                    }
                } else {
                    var14 = -0.09221731301455001f;
                }
            } else {
                if (input[2] > 749.0534771515073f) {
                    if (input[3] > 460.40394037244437f) {
                        if (input[2] > 853.7929150017374f) {
                            if (input[3] > 527.4366178417903f) {
                                var14 = 0.02938381255049964f;
                            } else {
                                var14 = -0.07894766308045656f;
                            }
                        } else {
                            var14 = 0.09089411394929812f;
                        }
                    } else {
                        var14 = 0.11649339453185814f;
                    }
                } else {
                    var14 = 0.0006914419800799559f;
                }
            }
        }
    }
    float var15;
    if (input[2] > 14792.678892086511f) {
        var15 = 0.09366416613257277f;
    } else {
        if (input[8] > 165.9571065972836f) {
            if (input[3] > 8832.453799258816f) {
                if (input[3] > 16133.7736635943f) {
                    var15 = 0.11411446567615131f;
                } else {
                    var15 = 0.022916525662676393f;
                }
            } else {
                if (input[0] > 2600.455016734229f) {
                    if (input[3] > 2950.2485632142f) {
                        if (input[2] > 3455.624944893846f) {
                            if (input[8] > 664.2366653706516f) {
                                if (input[6] > 1022.0979069012105f) {
                                    if (input[2] > 3735.8787595550643f) {
                                        if (input[3] > 8298.3514599235f) {
                                            var15 = -0.10446042811724084f;
                                        } else {
                                            if (input[6] > 3417.8365811639264f) {
                                                var15 = 0.07662413726370805f;
                                            } else {
                                                if (input[6] > 2299.373467191579f) {
                                                    if (input[2] > 9938.516349507323f) {
                                                        var15 = 0.0022957991549474306f;
                                                    } else {
                                                        var15 = -0.0890059157183799f;
                                                    }
                                                } else {
                                                    var15 = -0.014329994844472088f;
                                                }
                                            }
                                        }
                                    } else {
                                        var15 = 0.08460421429440439f;
                                    }
                                } else {
                                    var15 = -0.10728832387625298f;
                                }
                            } else {
                                var15 = 0.06859970220318488f;
                            }
                        } else {
                            if (input[3] > 5390.713219863787f) {
                                var15 = 0.05728444350542125f;
                            } else {
                                var15 = -0.11270627385468462f;
                            }
                        }
                    } else {
                        if (input[2] > 7225.491021681358f) {
                            if (input[7] > 1410.1664911049427f) {
                                var15 = -0.0843907837428999f;
                            } else {
                                var15 = 0.06246341944422388f;
                            }
                        } else {
                            var15 = -0.0742259293843997f;
                        }
                    }
                } else {
                    if (input[2] > 2592.4500843243623f) {
                        if (input[6] > 684.8457880206887f) {
                            var15 = -0.020518449142003438f;
                        } else {
                            var15 = -0.1554846413957806f;
                        }
                    } else {
                        if (input[7] > 590.4657604922536f) {
                            var15 = -0.14673735562757276f;
                        } else {
                            if (input[7] > 233.02059682580617f) {
                                var15 = 0.036504816120131574f;
                            } else {
                                if (input[7] > 198.57934247770507f) {
                                    if (input[0] > 1278.4501257480676f) {
                                        if (input[8] > 200.63784113107405f) {
                                            var15 = -0.08771245177089726f;
                                        } else {
                                            var15 = 0.06498065588118312f;
                                        }
                                    } else {
                                        var15 = -0.13146183468232292f;
                                    }
                                } else {
                                    var15 = 0.03157947678815161f;
                                }
                            }
                        }
                    }
                }
            }
        } else {
            if (input[3] > 698.804159608503f) {
                var15 = 0.06994977111952745f;
            } else {
                if (input[8] > 100.47545466187779f) {
                    if (input[7] > 182.56934626237464f) {
                        var15 = 0.08970546013653857f;
                    } else {
                        if (input[3] > 671.0949356385257f) {
                            var15 = -0.1285352017019866f;
                        } else {
                            if (input[2] > 668.695961476759f) {
                                var15 = 0.02658477255590573f;
                            } else {
                                if (input[0] > 869.521564130641f) {
                                    var15 = -0.0014728993603662318f;
                                } else {
                                    var15 = -0.18059432586055293f;
                                }
                            }
                        }
                    }
                } else {
                    var15 = 0.11357532106798562f;
                }
            }
        }
    }
    float var16;
    if (input[0] > 20239.808056429334f) {
        if (input[0] > 26039.382048862153f) {
            var16 = 0.10657464715984839f;
        } else {
            if (input[8] > 1479.0617268408391f) {
                var16 = 0.06877848385276664f;
            } else {
                var16 = -0.077395498013065f;
            }
        }
    } else {
        if (input[8] > 165.9571065972836f) {
            if (input[3] > 8832.453799258816f) {
                if (input[7] > 4469.917409228418f) {
                    var16 = 0.11048994755909547f;
                } else {
                    if (input[8] > 3376.0516601058157f) {
                        var16 = -0.08188426833090542f;
                    } else {
                        var16 = 0.044870402863624564f;
                    }
                }
            } else {
                if (input[0] > 2939.5261653321136f) {
                    if (input[2] > 3323.010242358951f) {
                        if (input[3] > 2731.468257018267f) {
                            if (input[8] > 664.2366653706516f) {
                                if (input[6] > 1022.0979069012105f) {
                                    if (input[6] > 1187.7310146934317f) {
                                        var16 = -0.023442123027118674f;
                                    } else {
                                        var16 = 0.05528987220686086f;
                                    }
                                } else {
                                    var16 = -0.09625558335020085f;
                                }
                            } else {
                                if (input[2] > 4530.0655204733985f) {
                                    var16 = 0.08926014094344525f;
                                } else {
                                    var16 = -0.05366971074462184f;
                                }
                            }
                        } else {
                            if (input[2] > 7727.156324711862f) {
                                var16 = 0.01835682392080631f;
                            } else {
                                var16 = -0.07692256213754817f;
                            }
                        }
                    } else {
                        if (input[7] > 1357.9086924995083f) {
                            var16 = 0.05694424949043972f;
                        } else {
                            if (input[0] > 3410.4854244847725f) {
                                var16 = -0.10766397150562404f;
                            } else {
                                var16 = -0.01277946743012835f;
                            }
                        }
                    }
                } else {
                    if (input[2] > 6961.786096800749f) {
                        var16 = 0.12260724473507814f;
                    } else {
                        if (input[3] > 2138.022578804402f) {
                            var16 = -0.08663548866527504f;
                        } else {
                            if (input[2] > 2751.204780450235f) {
                                var16 = -0.08243510512379976f;
                            } else {
                                if (input[3] > 1231.440279631917f) {
                                    if (input[3] > 1462.180669134366f) {
                                        if (input[2] > 1843.640739944273f) {
                                            var16 = 0.08859223692598936f;
                                        } else {
                                            var16 = -0.06977105833307289f;
                                        }
                                    } else {
                                        var16 = 0.08714090724403303f;
                                    }
                                } else {
                                    if (input[6] > 201.73896750167515f) {
                                        var16 = -0.012427343186829984f;
                                    } else {
                                        var16 = 0.09452526080057905f;
                                    }
                                }
                            }
                        }
                    }
                }
            }
        } else {
            if (input[0] > 721.6096736070672f) {
                if (input[2] > 1375.8815607580889f) {
                    var16 = -0.030008456593013995f;
                } else {
                    if (input[6] > 178.77615706107062f) {
                        var16 = 0.07856288396360658f;
                    } else {
                        if (input[2] > 749.0534771515073f) {
                            var16 = 0.054471326122332436f;
                        } else {
                            if (input[6] > 158.47927869385012f) {
                                var16 = -0.15945969044330396f;
                            } else {
                                var16 = 0.02084040648122888f;
                            }
                        }
                    }
                }
            } else {
                if (input[2] > 648.6245650919983f) {
                    var16 = 0.02941560839806462f;
                } else {
                    var16 = -0.15953900186101153f;
                }
            }
        }
    }
    float var17;
    if (input[2] > 14792.678892086511f) {
        var17 = 0.09037626760613178f;
    } else {
        if (input[8] > 165.9571065972836f) {
            if (input[0] > 14167.876364131682f) {
                if (input[6] > 2621.8909493402693f) {
                    var17 = 0.0589331442331244f;
                } else {
                    var17 = -0.014060668667668428f;
                }
            } else {
                if (input[0] > 2939.5261653321136f) {
                    if (input[2] > 3323.010242358951f) {
                        if (input[3] > 2236.4327317785496f) {
                            if (input[0] > 12454.04649952159f) {
                                var17 = -0.08444434051500319f;
                            } else {
                                if (input[8] > 2914.059649225477f) {
                                    var17 = 0.07197516603283377f;
                                } else {
                                    var17 = -0.017350730881235312f;
                                }
                            }
                        } else {
                            if (input[6] > 753.3780494235647f) {
                                var17 = -0.11211079947308174f;
                            } else {
                                var17 = -0.008610817861090823f;
                            }
                        }
                    } else {
                        if (input[7] > 1410.1664911049427f) {
                            var17 = 0.0559861995913284f;
                        } else {
                            if (input[0] > 3236.1110058234876f) {
                                var17 = -0.0979700972783546f;
                            } else {
                                var17 = 0.01859539650510404f;
                            }
                        }
                    }
                } else {
                    if (input[2] > 5675.340910272832f) {
                        var17 = 0.10425421353114817f;
                    } else {
                        if (input[2] > 2438.593995945401f) {
                            if (input[3] > 1705.241558413542f) {
                                if (input[3] > 2288.1997336556055f) {
                                    var17 = -0.069678033077732f;
                                } else {
                                    var17 = 0.0362918907694666f;
                                }
                            } else {
                                var17 = -0.14139662604242992f;
                            }
                        } else {
                            if (input[7] > 574.5011756289468f) {
                                var17 = -0.11464837206696453f;
                            } else {
                                if (input[7] > 233.02059682580617f) {
                                    var17 = 0.03359501906930519f;
                                } else {
                                    if (input[7] > 198.57934247770507f) {
                                        if (input[3] > 970.4725881994956f) {
                                            var17 = 0.027099468279581436f;
                                        } else {
                                            if (input[3] > 698.804159608503f) {
                                                var17 = -0.14404947529318457f;
                                            } else {
                                                var17 = 0.020416883244196368f;
                                            }
                                        }
                                    } else {
                                        if (input[2] > 1016.0038455993816f) {
                                            var17 = -0.03240236838554204f;
                                        } else {
                                            var17 = 0.07568831263347017f;
                                        }
                                    }
                                }
                            }
                        }
                    }
                }
            }
        } else {
            if (input[3] > 698.804159608503f) {
                if (input[8] > 155.96960242606778f) {
                    var17 = -0.012232636352264379f;
                } else {
                    var17 = 0.08575286662224603f;
                }
            } else {
                if (input[8] > 100.47545466187779f) {
                    if (input[7] > 182.56934626237464f) {
                        var17 = 0.08430246735224885f;
                    } else {
                        if (input[7] > 175.4072743322504f) {
                            var17 = -0.11419109268774064f;
                        } else {
                            if (input[6] > 194.14007454033992f) {
                                if (input[2] > 896.4965261933435f) {
                                    var17 = -0.014057133536931964f;
                                } else {
                                    var17 = 0.117108192425277f;
                                }
                            } else {
                                if (input[2] > 668.695961476759f) {
                                    var17 = -0.0052917421598636955f;
                                } else {
                                    var17 = -0.12009991282994557f;
                                }
                            }
                        }
                    }
                } else {
                    var17 = 0.11169646871128636f;
                }
            }
        }
    }
    float var18;
    if (input[0] > 26039.382048862153f) {
        var18 = 0.10551251862424119f;
    } else {
        if (input[8] > 165.9571065972836f) {
            if (input[3] > 8832.453799258816f) {
                if (input[3] > 16133.7736635943f) {
                    var18 = 0.1099363310332796f;
                } else {
                    if (input[0] > 5676.124002331143f) {
                        var18 = 0.010449273057431305f;
                    } else {
                        var18 = 0.1254826001652496f;
                    }
                }
            } else {
                if (input[7] > 3417.7753193486974f) {
                    var18 = 0.09783063964087389f;
                } else {
                    if (input[8] > 538.941215516345f) {
